=== Model information ===

Filename:     J48 (1 vs rest - 10 cross).model
Scheme:       weka.classifiers.trees.J48 -C 0.25 -M 2
Relation:     classification
Attributes:   109792
              [list of attributes omitted]

=== Classifier model ===

J48 pruned tree
------------------

1018_14 <= 0
|   39_told <= 0
|   |   11_felt <= 0
|   |   |   35_friend <= 0
|   |   |   |   383_fault <= 0
|   |   |   |   |   94_scare <= 0
|   |   |   |   |   |   67_famili <= 0
|   |   |   |   |   |   |   270_old <= 0
|   |   |   |   |   |   |   |   36_thought <= 0
|   |   |   |   |   |   |   |   |   423_even <= 0
|   |   |   |   |   |   |   |   |   |   435_said <= 0
|   |   |   |   |   |   |   |   |   |   |   95_happen <= 0
|   |   |   |   |   |   |   |   |   |   |   |   197_anyon <= 0
|   |   |   |   |   |   |   |   |   |   |   |   |   82_tri <= 0
|   |   |   |   |   |   |   |   |   |   |   |   |   |   76_still <= 0
|   |   |   |   |   |   |   |   |   |   |   |   |   |   |   52_18 <= 0
|   |   |   |   |   |   |   |   |   |   |   |   |   |   |   |   344_mom <= 0: 2 (824.0/96.0)
|   |   |   |   |   |   |   |   |   |   |   |   |   |   |   |   344_mom > 0: 1 (7.0/2.0)
|   |   |   |   |   |   |   |   |   |   |   |   |   |   |   52_18 > 0: 1 (5.0)
|   |   |   |   |   |   |   |   |   |   |   |   |   |   76_still > 0
|   |   |   |   |   |   |   |   |   |   |   |   |   |   |   149_think <= 0
|   |   |   |   |   |   |   |   |   |   |   |   |   |   |   |   202_year <= 0: 2 (18.0/2.0)
|   |   |   |   |   |   |   |   |   |   |   |   |   |   |   |   202_year > 0: 1 (3.0)
|   |   |   |   |   |   |   |   |   |   |   |   |   |   |   149_think > 0: 1 (3.0)
|   |   |   |   |   |   |   |   |   |   |   |   |   82_tri > 0
|   |   |   |   |   |   |   |   |   |   |   |   |   |   14_one <= 0
|   |   |   |   |   |   |   |   |   |   |   |   |   |   |   99_away <= 0: 2 (22.0/5.0)
|   |   |   |   |   |   |   |   |   |   |   |   |   |   |   99_away > 0: 1 (2.0)
|   |   |   |   |   |   |   |   |   |   |   |   |   |   14_one > 0: 1 (4.0)
|   |   |   |   |   |   |   |   |   |   |   |   197_anyon > 0
|   |   |   |   |   |   |   |   |   |   |   |   |   21_believ <= 0: 2 (12.0/2.0)
|   |   |   |   |   |   |   |   |   |   |   |   |   21_believ > 0: 1 (6.0)
|   |   |   |   |   |   |   |   |   |   |   95_happen > 0
|   |   |   |   |   |   |   |   |   |   |   |   95_happen <= 1
|   |   |   |   |   |   |   |   |   |   |   |   |   2_male <= 0
|   |   |   |   |   |   |   |   |   |   |   |   |   |   264_anoth <= 0
|   |   |   |   |   |   |   |   |   |   |   |   |   |   |   1407_navi <= 0
|   |   |   |   |   |   |   |   |   |   |   |   |   |   |   |   17496_realli_happen <= 0
|   |   |   |   |   |   |   |   |   |   |   |   |   |   |   |   |   226_back <= 0: 2 (36.0/9.0)
|   |   |   |   |   |   |   |   |   |   |   |   |   |   |   |   |   226_back > 0: 1 (4.0/1.0)
|   |   |   |   |   |   |   |   |   |   |   |   |   |   |   |   17496_realli_happen > 0: 1 (2.0)
|   |   |   |   |   |   |   |   |   |   |   |   |   |   |   1407_navi > 0: 1 (2.0)
|   |   |   |   |   |   |   |   |   |   |   |   |   |   264_anoth > 0: 1 (2.0)
|   |   |   |   |   |   |   |   |   |   |   |   |   2_male > 0: 1 (2.0)
|   |   |   |   |   |   |   |   |   |   |   |   95_happen > 1: 1 (4.0)
|   |   |   |   |   |   |   |   |   |   435_said > 0
|   |   |   |   |   |   |   |   |   |   |   167_woman <= 0
|   |   |   |   |   |   |   |   |   |   |   |   99_away <= 0
|   |   |   |   |   |   |   |   |   |   |   |   |   158_investig <= 0
|   |   |   |   |   |   |   |   |   |   |   |   |   |   199_ford <= 0
|   |   |   |   |   |   |   |   |   |   |   |   |   |   |   300_stori <= 0
|   |   |   |   |   |   |   |   |   |   |   |   |   |   |   |   488_exact <= 0
|   |   |   |   |   |   |   |   |   |   |   |   |   |   |   |   |   605_bring <= 0: 1 (26.0/1.0)
|   |   |   |   |   |   |   |   |   |   |   |   |   |   |   |   |   605_bring > 0: 2 (2.0)
|   |   |   |   |   |   |   |   |   |   |   |   |   |   |   |   488_exact > 0: 2 (2.0)
|   |   |   |   |   |   |   |   |   |   |   |   |   |   |   300_stori > 0: 2 (2.0)
|   |   |   |   |   |   |   |   |   |   |   |   |   |   199_ford > 0: 2 (2.0)
|   |   |   |   |   |   |   |   |   |   |   |   |   158_investig > 0: 2 (3.0)
|   |   |   |   |   |   |   |   |   |   |   |   99_away > 0: 2 (4.0)
|   |   |   |   |   |   |   |   |   |   |   167_woman > 0: 2 (5.0)
|   |   |   |   |   |   |   |   |   423_even > 0
|   |   |   |   |   |   |   |   |   |   140_read <= 0
|   |   |   |   |   |   |   |   |   |   |   379_support <= 0
|   |   |   |   |   |   |   |   |   |   |   |   986_record <= 0
|   |   |   |   |   |   |   |   |   |   |   |   |   167_woman <= 0
|   |   |   |   |   |   |   |   |   |   |   |   |   |   291_like <= 0: 1 (22.0/3.0)
|   |   |   |   |   |   |   |   |   |   |   |   |   |   291_like > 0
|   |   |   |   |   |   |   |   |   |   |   |   |   |   |   147_rememb <= 0: 2 (2.0)
|   |   |   |   |   |   |   |   |   |   |   |   |   |   |   147_rememb > 0: 1 (2.0)
|   |   |   |   |   |   |   |   |   |   |   |   |   167_woman > 0: 2 (4.0/1.0)
|   |   |   |   |   |   |   |   |   |   |   |   986_record > 0: 2 (2.0)
|   |   |   |   |   |   |   |   |   |   |   379_support > 0: 2 (2.0)
|   |   |   |   |   |   |   |   |   |   140_read > 0: 2 (5.0)
|   |   |   |   |   |   |   |   36_thought > 0
|   |   |   |   |   |   |   |   |   300_stori <= 0
|   |   |   |   |   |   |   |   |   |   178_ever <= 0
|   |   |   |   |   |   |   |   |   |   |   214_made <= 0: 1 (26.0/5.0)
|   |   |   |   |   |   |   |   |   |   |   214_made > 0: 2 (2.0)
|   |   |   |   |   |   |   |   |   |   178_ever > 0: 2 (2.0)
|   |   |   |   |   |   |   |   |   300_stori > 0: 2 (3.0)
|   |   |   |   |   |   |   270_old > 0
|   |   |   |   |   |   |   |   22_tell <= 0: 1 (18.0/3.0)
|   |   |   |   |   |   |   |   22_tell > 0: 2 (3.0)
|   |   |   |   |   |   67_famili > 0
|   |   |   |   |   |   |   331_mani <= 0
|   |   |   |   |   |   |   |   21226_famili_go <= 0: 1 (20.0/2.0)
|   |   |   |   |   |   |   |   21226_famili_go > 0: 2 (2.0)
|   |   |   |   |   |   |   331_mani > 0: 2 (2.0)
|   |   |   |   |   94_scare > 0
|   |   |   |   |   |   167_woman <= 0
|   |   |   |   |   |   |   462_kavanaugh <= 0: 1 (16.0)
|   |   |   |   |   |   |   462_kavanaugh > 0: 2 (2.0)
|   |   |   |   |   |   167_woman > 0: 2 (3.0)
|   |   |   |   383_fault > 0
|   |   |   |   |   301_share <= 0
|   |   |   |   |   |   870_feel <= 1: 1 (21.0)
|   |   |   |   |   |   870_feel > 1: 2 (2.0)
|   |   |   |   |   301_share > 0: 2 (4.0)
|   |   |   35_friend > 0
|   |   |   |   133_rapist <= 0
|   |   |   |   |   208_survivor <= 0
|   |   |   |   |   |   1358_innoc <= 0
|   |   |   |   |   |   |   4970_b <= 0: 1 (49.0/3.0)
|   |   |   |   |   |   |   4970_b > 0: 2 (2.0)
|   |   |   |   |   |   1358_innoc > 0: 2 (2.0)
|   |   |   |   |   208_survivor > 0: 2 (2.0)
|   |   |   |   133_rapist > 0: 2 (2.0)
|   |   11_felt > 0: 1 (22.0/2.0)
|   39_told > 0
|   |   190_hashtag <= 0
|   |   |   167_woman <= 0
|   |   |   |   426_high <= 0
|   |   |   |   |   16327_never_told <= 0: 1 (103.0/5.0)
|   |   |   |   |   16327_never_told > 0
|   |   |   |   |   |   113_confus <= 0: 2 (3.0)
|   |   |   |   |   |   113_confus > 0: 1 (2.0)
|   |   |   |   426_high > 0: 2 (3.0/1.0)
|   |   |   167_woman > 0: 2 (6.0/2.0)
|   |   190_hashtag > 0: 2 (2.0)
1018_14 > 0: 1 (25.0)

Number of Leaves  : 	61

Size of the tree : 	121


=== Re-evaluation on test set ===

User supplied test set
Relation:     classification
Instances:     unknown (yet). Reading incrementally
Attributes:   109792

=== Predictions on user test set ===

    inst#     actual  predicted error prediction
        1        1:?        1:1       0.909 
        2        1:?        2:2       0.883 
        3        1:?        1:1       0.951 
        4        1:?        1:1       0.951 
        5        1:?        1:1       0.9 
        6        1:?        2:2       0.773 
        7        1:?        1:1       1 
        8        1:?        2:2       0.883 
        9        1:?        2:2       0.883 
       10        1:?        2:2       0.883 
       11        1:?        2:2       0.883 
       12        1:?        2:2       0.883 
       13        1:?        2:2       0.667 
       14        1:?        2:2       0.883 
       15        1:?        2:2       0.667 
       16        1:?        2:2       0.883 
       17        1:?        2:2       0.773 
       18        1:?        2:2       0.75 
       19        1:?        2:2       0.833 
       20        1:?        2:2       0.75 
       21        1:?        1:1       0.939 
       22        1:?        1:1       0.951 
       23        1:?        1:1       0.909 
       24        1:?        2:2       0.889 
       25        1:?        2:2       0.883 
       26        1:?        2:2       0.883 
       27        1:?        1:1       0.9 
       28        1:?        2:2       0.833 
       29        1:?        1:1       0.951 
       30        1:?        2:2       0.883 
       31        1:?        2:2       0.883 
       32        1:?        2:2       0.883 
       33        1:?        2:2       0.75 
       34        1:?        1:1       1 
       35        1:?        2:2       0.667 
       36        1:?        2:2       0.883 
       37        1:?        2:2       0.883 
       38        1:?        1:1       0.951 
       39        1:?        2:2       0.883 
       40        1:?        2:2       0.883 
       41        1:?        1:1       0.951 
       42        1:?        2:2       0.883 
       43        1:?        2:2       0.883 
       44        1:?        2:2       0.667 
       45        1:?        2:2       0.667 
       46        1:?        2:2       1 
       47        1:?        2:2       0.883 
       48        1:?        2:2       0.883 
       49        1:?        2:2       0.883 
       50        1:?        1:1       0.951 
       51        1:?        1:1       0.951 
       52        1:?        2:2       0.883 
       53        1:?        2:2       0.883 
       54        1:?        1:1       0.951 
       55        1:?        2:2       0.883 
       56        1:?        2:2       0.883 
       57        1:?        1:1       0.962 
       58        1:?        1:1       0.951 
       59        1:?        2:2       0.883 
       60        1:?        2:2       0.883 
       61        1:?        2:2       0.883 
       62        1:?        1:1       0.9 
       63        1:?        2:2       0.883 
       64        1:?        2:2       0.883 
       65        1:?        1:1       0.808 
       66        1:?        1:1       1 
       67        1:?        2:2       0.883 
       68        1:?        2:2       0.883 
       69        1:?        2:2       0.773 
       70        1:?        2:2       0.883 
       71        1:?        2:2       0.883 
       72        1:?        1:1       1 
       73        1:?        1:1       0.909 
       74        1:?        2:2       0.883 
       75        1:?        2:2       0.883 
       76        1:?        2:2       0.883 
       77        1:?        2:2       0.883 
       78        1:?        1:1       0.833 
       79        1:?        1:1       0.9 
       80        1:?        2:2       0.883 
       81        1:?        1:1       0.9 
       82        1:?        2:2       0.883 
       83        1:?        2:2       0.883 
       84        1:?        1:1       0.951 
       85        1:?        2:2       0.75 
       86        1:?        2:2       0.883 
       87        1:?        2:2       0.883 
       88        1:?        1:1       0.951 
       89        1:?        2:2       0.75 
       90        1:?        2:2       0.883 
       91        1:?        1:1       0.939 
       92        1:?        1:1       0.909 
       93        1:?        2:2       0.883 
       94        1:?        1:1       0.951 
       95        1:?        1:1       1 
       96        1:?        1:1       0.833 
       97        1:?        2:2       0.883 
       98        1:?        2:2       0.883 
       99        1:?        1:1       1 
      100        1:?        1:1       0.939 
      101        1:?        1:1       0.939 
      102        1:?        2:2       0.883 
      103        1:?        2:2       0.883 
      104        1:?        2:2       0.883 
      105        1:?        1:1       0.951 
      106        1:?        2:2       0.75 
      107        1:?        2:2       0.883 
      108        1:?        2:2       0.883 
      109        1:?        1:1       0.951 
      110        1:?        2:2       0.667 
      111        1:?        2:2       0.883 
      112        1:?        1:1       1 
      113        1:?        1:1       0.864 
      114        1:?        2:2       0.883 
      115        1:?        2:2       0.883 
      116        1:?        2:2       0.883 
      117        1:?        1:1       0.939 
      118        1:?        2:2       0.883 
      119        1:?        1:1       0.951 
      120        1:?        2:2       0.883 
      121        1:?        1:1       0.962 
      122        1:?        1:1       0.951 
      123        1:?        2:2       0.883 
      124        1:?        2:2       0.883 
      125        1:?        1:1       0.833 
      126        1:?        2:2       0.883 
      127        1:?        1:1       0.962 
      128        1:?        1:1       0.939 
      129        1:?        2:2       0.883 
      130        1:?        2:2       0.883 
      131        1:?        2:2       0.883 
      132        1:?        2:2       0.883 
      133        1:?        2:2       0.883 
      134        1:?        1:1       0.962 
      135        1:?        2:2       0.883 
      136        1:?        1:1       0.9 
      137        1:?        2:2       0.883 
      138        1:?        2:2       1 
      139        1:?        2:2       1 
      140        1:?        2:2       0.883 
      141        1:?        2:2       0.883 
      142        1:?        2:2       1 
      143        1:?        1:1       0.9 
      144        1:?        1:1       0.864 
      145        1:?        2:2       0.883 
      146        1:?        1:1       0.833 
      147        1:?        2:2       0.667 
      148        1:?        2:2       0.883 
      149        1:?        2:2       0.889 
      150        1:?        1:1       0.951 
      151        1:?        2:2       0.883 
      152        1:?        2:2       0.883 
      153        1:?        1:1       0.864 
      154        1:?        1:1       0.951 
      155        1:?        2:2       0.883 
      156        1:?        2:2       0.883 
      157        1:?        2:2       0.883 
      158        1:?        2:2       0.883 
      159        1:?        2:2       0.883 
      160        1:?        1:1       1 
      161        1:?        1:1       0.864 
      162        1:?        1:1       0.939 
      163        1:?        2:2       0.883 
      164        1:?        2:2       0.883 
      165        1:?        2:2       0.883 
      166        1:?        2:2       0.883 
      167        1:?        2:2       0.883 
      168        1:?        1:1       1 
      169        1:?        2:2       0.883 
      170        1:?        1:1       0.909 
      171        1:?        2:2       0.883 
      172        1:?        2:2       0.75 
      173        1:?        2:2       0.889 
      174        1:?        1:1       0.9 
      175        1:?        2:2       0.883 
      176        1:?        2:2       0.889 
      177        1:?        2:2       0.883 
      178        1:?        2:2       0.883 
      179        1:?        2:2       0.883 
      180        1:?        1:1       1 
      181        1:?        2:2       0.75 
      182        1:?        2:2       0.883 
      183        1:?        2:2       0.75 
      184        1:?        2:2       0.883 
      185        1:?        2:2       0.883 
      186        1:?        2:2       0.883 
      187        1:?        2:2       0.883 
      188        1:?        2:2       0.883 
      189        1:?        2:2       0.883 
      190        1:?        1:1       0.909 
      191        1:?        2:2       0.883 
      192        1:?        2:2       0.883 
      193        1:?        1:1       0.939 
      194        1:?        2:2       0.883 
      195        1:?        2:2       0.883 
      196        1:?        2:2       0.883 
      197        1:?        2:2       0.883 
      198        1:?        1:1       1 
      199        1:?        2:2       0.883 
      200        1:?        1:1       0.951 
      201        1:?        2:2       0.883 
      202        1:?        2:2       0.883 
      203        1:?        1:1       1 
      204        1:?        1:1       0.951 
      205        1:?        1:1       0.808 
      206        1:?        2:2       0.883 
      207        1:?        2:2       0.75 
      208        1:?        2:2       0.883 
      209        1:?        1:1       1 
      210        1:?        2:2       0.833 
      211        1:?        1:1       1 
      212        1:?        1:1       0.864 
      213        1:?        1:1       1 
      214        1:?        2:2       0.883 
      215        1:?        1:1       0.951 
      216        1:?        2:2       0.883 
      217        1:?        2:2       0.883 
      218        1:?        2:2       0.773 
      219        1:?        2:2       0.883 
      220        1:?        2:2       0.883 
      221        1:?        2:2       0.883 
      222        1:?        2:2       0.883 
      223        1:?        2:2       0.883 
      224        1:?        1:1       1 
      225        1:?        1:1       0.939 
      226        1:?        2:2       0.883 
      227        1:?        2:2       0.883 
      228        1:?        1:1       0.951 
      229        1:?        2:2       0.883 
      230        1:?        1:1       0.951 
      231        1:?        1:1       0.909 
      232        1:?        2:2       0.883 
      233        1:?        1:1       0.909 
      234        1:?        1:1       0.808 
      235        1:?        2:2       0.883 
      236        1:?        1:1       0.939 
      237        1:?        2:2       0.883 
      238        1:?        1:1       0.864 
      239        1:?        2:2       0.883 
      240        1:?        1:1       1 
      241        1:?        2:2       0.883 
      242        1:?        2:2       0.883 
      243        1:?        1:1       0.951 
      244        1:?        1:1       0.962 
      245        1:?        2:2       1 
      246        1:?        2:2       0.883 
      247        1:?        1:1       0.951 
      248        1:?        2:2       0.667 
      249        1:?        2:2       0.883 
      250        1:?        2:2       0.883 
      251        1:?        2:2       0.883 
      252        1:?        2:2       0.883 
      253        1:?        2:2       0.883 
      254        1:?        2:2       0.883 
      255        1:?        2:2       0.883 
      256        1:?        1:1       0.808 
      257        1:?        1:1       0.909 
      258        1:?        1:1       0.951 
      259        1:?        2:2       0.883 
      260        1:?        1:1       0.864 
      261        1:?        2:2       0.883 
      262        1:?        2:2       1 
      263        1:?        1:1       0.951 
      264        1:?        2:2       0.883 
      265        1:?        2:2       0.883 
      266        1:?        2:2       0.883 
      267        1:?        2:2       0.883 
      268        1:?        1:1       0.9 
      269        1:?        1:1       0.951 
      270        1:?        2:2       0.883 
      271        1:?        2:2       0.883 
      272        1:?        2:2       0.883 
      273        1:?        2:2       0.883 
      274        1:?        2:2       0.883 
      275        1:?        2:2       0.883 
      276        1:?        2:2       0.883 
      277        1:?        2:2       0.883 
      278        1:?        2:2       0.883 
      279        1:?        2:2       0.883 
      280        1:?        2:2       0.883 
      281        1:?        1:1       0.951 
      282        1:?        2:2       0.883 
      283        1:?        1:1       0.714 
      284        1:?        1:1       0.714 
      285        1:?        2:2       0.883 
      286        1:?        1:1       0.909 
      287        1:?        1:1       0.833 
      288        1:?        1:1       0.939 
      289        1:?        1:1       0.951 
      290        1:?        1:1       0.9 
      291        1:?        2:2       0.883 
      292        1:?        2:2       0.883 
      293        1:?        2:2       0.883 
      294        1:?        2:2       0.883 
      295        1:?        1:1       0.808 
      296        1:?        2:2       0.883 
      297        1:?        1:1       1 
      298        1:?        1:1       0.808 
      299        1:?        1:1       0.833 
      300        1:?        1:1       0.951 
      301        1:?        2:2       0.883 
      302        1:?        1:1       0.962 
      303        1:?        2:2       0.883 
      304        1:?        2:2       0.883 
      305        1:?        1:1       0.951 
      306        1:?        2:2       0.883 
      307        1:?        2:2       0.883 
      308        1:?        1:1       0.951 
      309        1:?        2:2       0.883 
      310        1:?        2:2       0.883 
      311        1:?        2:2       0.883 
      312        1:?        2:2       0.883 
      313        1:?        1:1       0.951 
      314        1:?        2:2       0.883 
      315        1:?        2:2       0.75 
      316        1:?        2:2       0.883 
      317        1:?        2:2       0.883 
      318        1:?        2:2       0.773 
      319        1:?        1:1       0.9 
      320        1:?        2:2       0.75 
      321        1:?        2:2       0.883 
      322        1:?        2:2       0.75 
      323        1:?        2:2       0.883 
      324        1:?        2:2       0.889 
      325        1:?        2:2       0.883 
      326        1:?        2:2       0.883 
      327        1:?        1:1       1 
      328        1:?        2:2       0.883 
      329        1:?        2:2       0.883 
      330        1:?        2:2       0.773 
      331        1:?        2:2       0.75 
      332        1:?        1:1       0.962 
      333        1:?        2:2       0.883 
      334        1:?        2:2       0.883 
      335        1:?        1:1       0.864 
      336        1:?        1:1       0.833 
      337        1:?        1:1       0.951 
      338        1:?        1:1       1 
      339        1:?        1:1       1 
      340        1:?        2:2       0.883 
      341        1:?        2:2       0.833 
      342        1:?        2:2       0.883 
      343        1:?        1:1       0.951 
      344        1:?        1:1       0.939 
      345        1:?        2:2       0.883 
      346        1:?        2:2       0.883 
      347        1:?        1:1       0.864 
      348        1:?        2:2       0.883 
      349        1:?        2:2       0.883 
      350        1:?        2:2       0.883 
      351        1:?        2:2       0.883 
      352        1:?        2:2       0.883 
      353        1:?        2:2       0.883 
      354        1:?        2:2       0.883 
      355        1:?        2:2       0.883 
      356        1:?        1:1       0.939 
      357        1:?        1:1       0.833 
      358        1:?        2:2       0.883 
      359        1:?        2:2       0.883 
      360        1:?        1:1       0.9 
      361        1:?        1:1       1 
      362        1:?        2:2       0.883 
      363        1:?        1:1       1 
      364        1:?        2:2       0.883 
      365        1:?        2:2       0.883 
      366        1:?        2:2       0.883 
      367        1:?        2:2       0.883 
      368        1:?        1:1       0.951 
      369        1:?        2:2       0.883 
      370        1:?        2:2       0.883 
      371        1:?        2:2       0.883 
      372        1:?        2:2       0.883 
      373        1:?        2:2       0.883 
      374        1:?        2:2       0.773 
      375        1:?        2:2       0.883 
      376        1:?        1:1       1 
      377        1:?        1:1       1 
      378        1:?        2:2       0.883 
      379        1:?        2:2       0.883 
      380        1:?        2:2       0.883 
      381        1:?        2:2       0.883 
      382        1:?        2:2       0.883 
      383        1:?        2:2       0.883 
      384        1:?        1:1       0.939 
      385        1:?        2:2       0.883 
      386        1:?        1:1       0.808 
      387        1:?        1:1       1 
      388        1:?        2:2       0.883 
      389        1:?        2:2       0.883 
      390        1:?        2:2       0.883 
      391        1:?        2:2       0.883 
      392        1:?        1:1       0.864 
      393        1:?        1:1       0.808 
      394        1:?        2:2       1 
      395        1:?        2:2       0.883 
      396        1:?        1:1       0.808 
      397        1:?        1:1       1 
      398        1:?        2:2       0.883 
      399        1:?        2:2       0.883 
      400        1:?        2:2       0.883 
      401        1:?        2:2       0.883 
      402        1:?        1:1       0.939 
      403        1:?        2:2       0.883 
      404        1:?        1:1       0.951 
      405        1:?        1:1       0.833 
      406        1:?        1:1       0.833 
      407        1:?        2:2       0.883 
      408        1:?        2:2       0.883 
      409        1:?        2:2       0.883 
      410        1:?        2:2       0.883 
      411        1:?        2:2       1 
      412        1:?        1:1       0.864 
      413        1:?        2:2       0.883 
      414        1:?        2:2       0.75 
      415        1:?        1:1       0.864 
      416        1:?        2:2       0.883 
      417        1:?        2:2       0.883 
      418        1:?        1:1       0.951 
      419        1:?        2:2       0.883 
      420        1:?        2:2       0.883 
      421        1:?        1:1       0.939 
      422        1:?        1:1       0.808 
      423        1:?        2:2       0.883 
      424        1:?        1:1       0.939 
      425        1:?        1:1       1 
      426        1:?        2:2       0.883 
      427        1:?        2:2       0.883 
      428        1:?        2:2       0.883 
      429        1:?        2:2       0.883 
      430        1:?        2:2       0.883 
      431        1:?        1:1       0.951 
      432        1:?        1:1       0.9 
      433        1:?        2:2       0.883 
      434        1:?        2:2       0.883 
      435        1:?        2:2       0.883 
      436        1:?        2:2       0.883 
      437        1:?        2:2       0.883 
      438        1:?        2:2       0.883 
      439        1:?        2:2       0.883 
      440        1:?        2:2       0.883 
      441        1:?        1:1       0.864 
      442        1:?        2:2       0.883 
      443        1:?        2:2       0.883 
      444        1:?        2:2       0.883 
      445        1:?        2:2       0.883 
      446        1:?        1:1       0.909 
      447        1:?        1:1       0.939 
      448        1:?        1:1       0.939 
      449        1:?        1:1       0.833 
      450        1:?        2:2       0.883 
      451        1:?        1:1       0.864 
      452        1:?        1:1       0.9 
      453        1:?        1:1       0.951 
      454        1:?        2:2       0.883 
      455        1:?        2:2       0.883 
      456        1:?        2:2       0.883 
      457        1:?        2:2       0.883 
      458        1:?        1:1       0.962 
      459        1:?        1:1       0.951 
      460        1:?        2:2       0.883 
      461        1:?        1:1       0.939 
      462        1:?        1:1       1 
      463        1:?        2:2       0.883 
      464        1:?        2:2       0.883 
      465        1:?        1:1       1 
      466        1:?        2:2       0.883 
      467        1:?        2:2       0.773 
      468        1:?        1:1       1 
      469        1:?        2:2       0.883 
      470        1:?        1:1       0.9 
      471        1:?        1:1       0.951 
      472        1:?        2:2       0.75 
      473        1:?        2:2       0.883 
      474        1:?        2:2       0.883 
      475        1:?        1:1       1 
      476        1:?        2:2       0.889 
      477        1:?        1:1       0.909 
      478        1:?        2:2       0.883 
      479        1:?        2:2       0.883 
      480        1:?        1:1       0.808 
      481        1:?        2:2       0.883 
      482        1:?        1:1       0.9 
      483        1:?        1:1       0.962 
      484        1:?        2:2       0.883 
      485        1:?        2:2       0.883 
      486        1:?        2:2       0.883 
      487        1:?        1:1       0.951 
      488        1:?        2:2       0.883 
      489        1:?        1:1       0.808 
      490        1:?        2:2       0.883 
      491        1:?        2:2       0.883 
      492        1:?        2:2       0.883 
      493        1:?        2:2       0.883 
      494        1:?        1:1       1 
      495        1:?        2:2       0.883 
      496        1:?        2:2       0.883 
      497        1:?        2:2       0.75 
      498        1:?        1:1       0.951 
      499        1:?        2:2       0.883 
      500        1:?        2:2       0.883 
      501        1:?        2:2       0.883 
      502        1:?        2:2       0.883 
      503        1:?        1:1       0.909 
      504        1:?        2:2       0.883 
      505        1:?        1:1       0.909 
      506        1:?        2:2       0.75 
      507        1:?        2:2       0.883 
      508        1:?        2:2       0.883 
      509        1:?        1:1       0.951 
      510        1:?        1:1       1 
      511        1:?        1:1       1 
      512        1:?        1:1       0.714 
      513        1:?        1:1       0.951 
      514        1:?        2:2       0.883 
      515        1:?        1:1       1 
      516        1:?        2:2       0.667 
      517        1:?        2:2       0.883 
      518        1:?        2:2       0.883 
      519        1:?        2:2       0.883 
      520        1:?        2:2       0.883 
      521        1:?        2:2       0.883 
      522        1:?        2:2       0.883 
      523        1:?        2:2       0.883 
      524        1:?        2:2       0.889 
      525        1:?        2:2       0.883 
      526        1:?        2:2       0.883 
      527        1:?        2:2       0.773 
      528        1:?        1:1       0.962 
      529        1:?        1:1       0.951 
      530        1:?        2:2       0.883 
      531        1:?        2:2       0.883 
      532        1:?        2:2       0.883 
      533        1:?        2:2       0.883 
      534        1:?        2:2       0.883 
      535        1:?        2:2       0.75 
      536        1:?        1:1       0.864 
      537        1:?        1:1       0.951 
      538        1:?        2:2       0.883 
      539        1:?        1:1       0.951 
      540        1:?        2:2       0.883 
      541        1:?        1:1       0.951 
      542        1:?        2:2       0.883 
      543        1:?        2:2       0.883 
      544        1:?        2:2       0.883 
      545        1:?        2:2       0.883 
      546        1:?        1:1       0.951 
      547        1:?        2:2       0.883 
      548        1:?        2:2       0.883 
      549        1:?        1:1       1 
      550        1:?        2:2       0.883 
      551        1:?        1:1       0.951 
      552        1:?        1:1       0.951 
      553        1:?        2:2       0.889 
      554        1:?        1:1       0.951 
      555        1:?        1:1       0.951 
      556        1:?        1:1       1 
      557        1:?        1:1       0.951 
      558        1:?        2:2       0.883 
      559        1:?        2:2       0.883 
      560        1:?        1:1       0.951 
      561        1:?        1:1       0.833 
      562        1:?        2:2       0.75 
      563        1:?        2:2       0.883 
      564        1:?        2:2       0.883 
      565        1:?        2:2       0.883 
      566        1:?        2:2       0.883 
      567        1:?        2:2       0.773 
      568        1:?        2:2       0.667 
      569        1:?        2:2       0.883 
      570        1:?        2:2       0.883 
      571        1:?        2:2       0.667 
      572        1:?        2:2       0.883 
      573        1:?        2:2       0.883 
      574        1:?        2:2       0.883 
      575        1:?        1:1       0.808 
      576        1:?        1:1       0.9 
      577        1:?        2:2       0.883 
      578        1:?        2:2       0.883 
      579        1:?        1:1       0.951 
      580        1:?        2:2       0.773 
      581        1:?        2:2       0.883 
      582        1:?        1:1       1 
      583        1:?        1:1       0.9 
      584        1:?        2:2       0.883 
      585        1:?        2:2       0.883 
      586        1:?        1:1       0.833 
      587        1:?        1:1       1 
      588        1:?        1:1       0.939 
      589        1:?        2:2       0.75 
      590        1:?        2:2       0.883 
      591        1:?        1:1       0.833 
      592        1:?        2:2       0.773 
      593        1:?        2:2       0.883 
      594        1:?        1:1       0.909 
      595        1:?        2:2       0.883 
      596        1:?        1:1       0.939 
      597        1:?        2:2       0.883 
      598        1:?        1:1       1 
      599        1:?        1:1       0.951 
      600        1:?        1:1       0.909 
      601        1:?        2:2       0.883 
      602        1:?        2:2       1 
      603        1:?        2:2       0.883 
      604        1:?        1:1       0.909 
      605        1:?        2:2       0.883 
      606        1:?        1:1       0.951 
      607        1:?        2:2       0.883 
      608        1:?        1:1       0.939 
      609        1:?        2:2       0.773 
      610        1:?        1:1       1 
      611        1:?        2:2       0.883 
      612        1:?        2:2       0.883 
      613        1:?        2:2       0.883 
      614        1:?        2:2       0.889 
      615        1:?        1:1       1 
      616        1:?        1:1       0.808 
      617        1:?        2:2       0.883 
      618        1:?        2:2       0.883 
      619        1:?        1:1       0.939 
      620        1:?        1:1       0.951 
      621        1:?        1:1       0.951 
      622        1:?        1:1       0.951 
      623        1:?        2:2       0.667 
      624        1:?        2:2       0.883 
      625        1:?        2:2       0.883 
      626        1:?        1:1       1 
      627        1:?        1:1       1 
      628        1:?        1:1       0.951 
      629        1:?        2:2       0.883 
      630        1:?        2:2       0.883 
      631        1:?        1:1       0.951 
      632        1:?        2:2       0.883 
      633        1:?        2:2       0.883 
      634        1:?        2:2       0.883 
      635        1:?        1:1       0.909 
      636        1:?        1:1       0.962 
      637        1:?        2:2       0.883 
      638        1:?        2:2       0.883 
      639        1:?        2:2       0.883 
      640        1:?        1:1       0.9 
      641        1:?        1:1       0.951 
      642        1:?        2:2       0.883 
      643        1:?        2:2       0.883 
      644        1:?        1:1       0.951 
      645        1:?        2:2       0.883 
      646        1:?        2:2       0.883 
      647        1:?        2:2       0.883 
      648        1:?        2:2       0.883 
      649        1:?        2:2       0.75 
      650        1:?        2:2       0.883 
      651        1:?        1:1       0.939 
      652        1:?        2:2       0.883 
      653        1:?        2:2       0.883 
      654        1:?        1:1       0.833 
      655        1:?        1:1       0.951 
      656        1:?        1:1       0.951 
      657        1:?        2:2       0.883 
      658        1:?        2:2       0.883 
      659        1:?        2:2       0.889 
      660        1:?        2:2       0.883 
      661        1:?        2:2       0.889 
      662        1:?        1:1       0.939 
      663        1:?        2:2       0.883 
      664        1:?        2:2       0.75 
      665        1:?        2:2       0.883 
      666        1:?        1:1       0.939 
      667        1:?        2:2       0.883 
      668        1:?        2:2       0.75 
      669        1:?        1:1       0.951 
      670        1:?        2:2       0.883 
      671        1:?        1:1       0.951 
      672        1:?        2:2       0.883 
      673        1:?        1:1       0.939 
      674        1:?        2:2       0.883 
      675        1:?        1:1       0.951 
      676        1:?        2:2       0.883 
      677        1:?        2:2       0.883 
      678        1:?        1:1       1 
      679        1:?        1:1       1 
      680        1:?        2:2       0.883 
      681        1:?        1:1       0.951 
      682        1:?        2:2       0.883 
      683        1:?        1:1       0.808 
      684        1:?        2:2       0.889 
      685        1:?        2:2       0.883 
      686        1:?        1:1       0.951 
      687        1:?        1:1       1 
      688        1:?        1:1       0.951 
      689        1:?        2:2       0.883 
      690        1:?        2:2       0.883 
      691        1:?        2:2       1 
      692        1:?        1:1       0.951 
      693        1:?        2:2       0.883 
      694        1:?        1:1       0.939 
      695        1:?        1:1       1 
      696        1:?        2:2       0.889 
      697        1:?        2:2       0.883 
      698        1:?        1:1       0.962 
      699        1:?        2:2       0.883 
      700        1:?        2:2       0.883 
      701        1:?        1:1       1 
      702        1:?        1:1       0.833 
      703        1:?        2:2       1 
      704        1:?        2:2       0.883 
      705        1:?        1:1       0.864 
      706        1:?        1:1       0.951 
      707        1:?        2:2       0.883 
      708        1:?        2:2       0.75 
      709        1:?        1:1       1 
      710        1:?        1:1       0.939 
      711        1:?        1:1       0.939 
      712        1:?        2:2       0.883 
      713        1:?        2:2       0.883 
      714        1:?        1:1       1 
      715        1:?        1:1       0.909 
      716        1:?        2:2       0.883 
      717        1:?        1:1       0.9 
      718        1:?        1:1       0.951 
      719        1:?        1:1       1 
      720        1:?        2:2       0.883 
      721        1:?        1:1       0.951 
      722        1:?        2:2       0.883 
      723        1:?        2:2       0.883 
      724        1:?        1:1       0.951 
      725        1:?        2:2       0.883 
      726        1:?        2:2       0.883 
      727        1:?        1:1       0.951 
      728        1:?        2:2       0.883 
      729        1:?        2:2       0.883 
      730        1:?        1:1       0.864 
      731        1:?        1:1       0.962 
      732        1:?        1:1       0.951 
      733        1:?        2:2       0.773 
      734        1:?        2:2       0.883 
      735        1:?        2:2       0.883 
      736        1:?        2:2       0.883 
      737        1:?        1:1       0.951 
      738        1:?        2:2       0.883 
      739        1:?        1:1       0.833 
      740        1:?        1:1       0.951 
      741        1:?        2:2       0.883 
      742        1:?        2:2       0.883 
      743        1:?        2:2       0.883 
      744        1:?        1:1       1 
      745        1:?        1:1       0.909 
      746        1:?        2:2       0.883 
      747        1:?        2:2       0.883 
      748        1:?        2:2       0.883 
      749        1:?        2:2       1 
      750        1:?        2:2       0.883 
      751        1:?        1:1       0.951 
      752        1:?        2:2       0.883 
      753        1:?        2:2       0.883 
      754        1:?        1:1       1 
      755        1:?        2:2       0.883 
      756        1:?        1:1       0.951 
      757        1:?        2:2       0.883 
      758        1:?        2:2       0.883 
      759        1:?        2:2       0.889 
      760        1:?        2:2       0.883 
      761        1:?        2:2       0.883 
      762        1:?        1:1       0.951 
      763        1:?        2:2       0.883 
      764        1:?        1:1       1 
      765        1:?        1:1       0.939 
      766        1:?        1:1       0.833 
      767        1:?        2:2       0.883 
      768        1:?        1:1       1 
      769        1:?        2:2       0.883 
      770        1:?        2:2       0.75 
      771        1:?        1:1       0.833 
      772        1:?        2:2       0.75 
      773        1:?        2:2       0.883 
      774        1:?        1:1       0.962 
      775        1:?        2:2       0.883 
      776        1:?        2:2       0.883 
      777        1:?        2:2       0.883 
      778        1:?        1:1       0.951 
      779        1:?        2:2       0.883 
      780        1:?        2:2       0.883 
      781        1:?        2:2       0.75 
      782        1:?        2:2       0.883 
      783        1:?        2:2       0.75 
      784        1:?        1:1       1 
      785        1:?        1:1       0.909 
      786        1:?        1:1       1 
      787        1:?        1:1       0.951 
      788        1:?        2:2       0.883 
      789        1:?        2:2       0.883 
      790        1:?        2:2       0.883 
      791        1:?        2:2       0.75 
      792        1:?        2:2       0.883 
      793        1:?        2:2       0.75 
      794        1:?        2:2       0.883 
      795        1:?        2:2       0.883 
      796        1:?        2:2       0.889 
      797        1:?        1:1       1 
      798        1:?        1:1       1 
      799        1:?        2:2       1 
      800        1:?        2:2       0.889 
      801        1:?        2:2       0.833 
      802        1:?        1:1       0.951 
      803        1:?        1:1       0.939 
      804        1:?        1:1       0.951 
      805        1:?        2:2       0.883 
      806        1:?        2:2       0.667 
      807        1:?        2:2       0.889 
      808        1:?        2:2       0.883 
      809        1:?        1:1       0.951 
      810        1:?        1:1       0.939 
      811        1:?        2:2       0.883 
      812        1:?        2:2       0.883 
      813        1:?        2:2       0.883 
      814        1:?        2:2       1 
      815        1:?        2:2       0.773 
      816        1:?        2:2       0.883 
      817        1:?        1:1       0.951 
      818        1:?        2:2       0.883 
      819        1:?        1:1       0.9 
      820        1:?        2:2       0.883 
      821        1:?        1:1       0.833 
      822        1:?        2:2       0.883 
      823        1:?        1:1       1 
      824        1:?        2:2       0.883 
      825        1:?        2:2       0.883 
      826        1:?        2:2       0.883 
      827        1:?        1:1       0.951 
      828        1:?        2:2       0.883 
      829        1:?        2:2       0.883 
      830        1:?        1:1       0.909 
      831        1:?        2:2       0.883 
      832        1:?        1:1       0.808 
      833        1:?        2:2       0.883 
      834        1:?        2:2       0.883 
      835        1:?        2:2       0.883 
      836        1:?        1:1       1 
      837        1:?        2:2       0.883 
      838        1:?        2:2       0.883 
      839        1:?        2:2       0.883 
      840        1:?        2:2       0.883 
      841        1:?        2:2       0.883 
      842        1:?        2:2       0.883 
      843        1:?        2:2       0.883 
      844        1:?        1:1       1 
      845        1:?        1:1       0.939 
      846        1:?        2:2       0.883 
      847        1:?        1:1       0.864 
      848        1:?        2:2       0.883 
      849        1:?        1:1       0.808 
      850        1:?        2:2       0.883 
      851        1:?        1:1       1 
      852        1:?        2:2       0.883 
      853        1:?        2:2       0.883 
      854        1:?        1:1       0.951 
      855        1:?        1:1       0.864 
      856        1:?        1:1       0.939 
      857        1:?        1:1       0.939 
      858        1:?        1:1       0.9 
      859        1:?        1:1       1 
      860        1:?        1:1       0.939 
      861        1:?        1:1       0.75 
      862        1:?        2:2       0.883 
      863        1:?        2:2       0.667 
      864        1:?        2:2       0.883 
      865        1:?        2:2       0.883 
      866        1:?        1:1       1 
      867        1:?        2:2       0.883 
      868        1:?        2:2       0.75 
      869        1:?        2:2       0.75 
      870        1:?        2:2       0.833 
      871        1:?        2:2       0.883 
      872        1:?        2:2       0.883 
      873        1:?        2:2       0.883 
      874        1:?        2:2       0.883 
      875        1:?        1:1       1 
      876        1:?        1:1       1 
      877        1:?        2:2       0.883 
      878        1:?        2:2       0.883 
      879        1:?        1:1       0.951 
      880        1:?        2:2       0.75 
      881        1:?        2:2       0.883 
      882        1:?        2:2       0.883 
      883        1:?        2:2       0.889 
      884        1:?        2:2       0.883 
      885        1:?        2:2       0.883 
      886        1:?        2:2       0.883 
      887        1:?        2:2       0.883 
      888        1:?        1:1       0.951 
      889        1:?        2:2       1 
      890        1:?        2:2       0.883 
      891        1:?        1:1       0.939 
      892        1:?        1:1       0.714 
      893        1:?        1:1       0.939 
      894        1:?        2:2       0.883 
      895        1:?        1:1       1 
      896        1:?        2:2       0.883 
      897        1:?        2:2       0.883 
      898        1:?        2:2       0.883 
      899        1:?        2:2       0.883 
      900        1:?        2:2       0.883 
      901        1:?        2:2       0.889 
      902        1:?        2:2       0.883 
      903        1:?        1:1       0.951 
      904        1:?        2:2       0.883 
      905        1:?        2:2       0.75 
      906        1:?        1:1       0.864 
      907        1:?        2:2       0.883 
      908        1:?        2:2       0.75 
      909        1:?        2:2       1 
      910        1:?        1:1       0.951 
      911        1:?        1:1       0.939 
      912        1:?        2:2       0.883 
      913        1:?        1:1       1 
      914        1:?        2:2       0.883 
      915        1:?        1:1       0.808 
      916        1:?        2:2       0.883 
      917        1:?        2:2       0.883 
      918        1:?        2:2       0.883 
      919        1:?        2:2       0.883 
      920        1:?        2:2       0.883 
      921        1:?        1:1       0.951 
      922        1:?        1:1       0.714 
      923        1:?        2:2       0.883 
      924        1:?        2:2       0.883 
      925        1:?        1:1       0.864 
      926        1:?        2:2       0.883 
      927        1:?        2:2       0.883 
      928        1:?        1:1       0.9 
      929        1:?        1:1       0.808 
      930        1:?        1:1       0.808 
      931        1:?        2:2       0.883 
      932        1:?        1:1       0.939 
      933        1:?        2:2       0.883 
      934        1:?        2:2       0.883 
      935        1:?        2:2       0.883 
      936        1:?        1:1       0.951 
      937        1:?        1:1       0.939 
      938        1:?        1:1       0.808 
      939        1:?        1:1       0.962 
      940        1:?        2:2       0.883 
      941        1:?        2:2       0.883 
      942        1:?        2:2       0.889 
      943        1:?        1:1       1 
      944        1:?        1:1       0.939 
      945        1:?        2:2       0.883 
      946        1:?        2:2       0.883 
      947        1:?        2:2       0.883 
      948        1:?        2:2       0.883 
      949        1:?        1:1       0.951 
      950        1:?        1:1       0.909 
      951        1:?        1:1       1 
      952        1:?        1:1       0.951 
      953        1:?        2:2       0.883 
      954        1:?        2:2       0.883 
      955        1:?        2:2       0.773 
      956        1:?        2:2       1 
      957        1:?        2:2       0.75 
      958        1:?        1:1       0.951 
      959        1:?        1:1       0.951 
      960        1:?        1:1       0.808 
      961        1:?        1:1       1 
      962        1:?        1:1       0.939 
      963        1:?        2:2       0.883 
      964        1:?        1:1       1 
      965        1:?        2:2       0.883 
      966        1:?        2:2       0.883 
      967        1:?        2:2       0.883 
      968        1:?        2:2       0.667 
      969        1:?        2:2       0.883 
      970        1:?        1:1       0.9 
      971        1:?        1:1       0.951 
      972        1:?        1:1       0.864 
      973        1:?        2:2       0.833 
      974        1:?        2:2       0.773 
      975        1:?        2:2       0.883 
      976        1:?        1:1       0.951 
      977        1:?        2:2       0.883 
      978        1:?        1:1       0.962 
      979        1:?        1:1       0.951 
      980        1:?        1:1       0.833 
      981        1:?        1:1       1 
      982        1:?        1:1       0.909 
      983        1:?        1:1       0.833 
      984        1:?        2:2       0.883 
      985        1:?        1:1       0.962 
      986        1:?        2:2       0.883 
      987        1:?        2:2       0.883 
      988        1:?        2:2       0.883 
      989        1:?        2:2       0.883 
      990        1:?        2:2       0.883 
      991        1:?        1:1       0.864 
      992        1:?        2:2       0.883 
      993        1:?        2:2       0.883 
      994        1:?        1:1       1 
      995        1:?        2:2       0.883 
      996        1:?        1:1       0.951 
      997        1:?        1:1       1 
      998        1:?        2:2       0.883 
      999        1:?        2:2       0.889 
     1000        1:?        1:1       0.864 
     1001        1:?        1:1       0.962 
     1002        1:?        1:1       0.951 
     1003        1:?        2:2       0.883 
     1004        1:?        2:2       0.883 
     1005        1:?        1:1       0.951 
     1006        1:?        1:1       1 
     1007        1:?        2:2       0.883 
     1008        1:?        2:2       1 
     1009        1:?        2:2       0.889 
     1010        1:?        1:1       1 
     1011        1:?        1:1       0.951 
     1012        1:?        2:2       0.883 
     1013        1:?        2:2       0.883 
     1014        1:?        1:1       1 
     1015        1:?        2:2       0.883 
     1016        1:?        1:1       0.864 
     1017        1:?        1:1       1 
     1018        1:?        2:2       0.883 
     1019        1:?        1:1       0.9 
     1020        1:?        1:1       0.951 
     1021        1:?        2:2       0.833 
     1022        1:?        2:2       0.883 
     1023        1:?        2:2       0.75 
     1024        1:?        2:2       0.883 
     1025        1:?        1:1       1 
     1026        1:?        2:2       0.883 
     1027        1:?        1:1       0.951 
     1028        1:?        2:2       0.883 
     1029        1:?        2:2       0.833 
     1030        1:?        2:2       0.883 
     1031        1:?        2:2       0.883 
     1032        1:?        2:2       0.883 
     1033        1:?        2:2       0.883 
     1034        1:?        2:2       0.883 
     1035        1:?        2:2       0.75 
     1036        1:?        2:2       0.883 
     1037        1:?        1:1       0.951 
     1038        1:?        2:2       0.883 
     1039        1:?        2:2       0.883 
     1040        1:?        1:1       0.951 
     1041        1:?        1:1       1 
     1042        1:?        1:1       0.864 
     1043        1:?        2:2       0.883 
     1044        1:?        1:1       0.951 
     1045        1:?        2:2       1 
     1046        1:?        2:2       0.883 
     1047        1:?        1:1       0.951 
     1048        1:?        2:2       0.883 
     1049        1:?        2:2       0.75 
     1050        1:?        2:2       0.883 
     1051        1:?        2:2       0.883 
     1052        1:?        1:1       0.951 
     1053        1:?        2:2       0.883 
     1054        1:?        2:2       0.883 
     1055        1:?        2:2       0.883 
     1056        1:?        1:1       1 
     1057        1:?        1:1       0.808 
     1058        1:?        2:2       0.75 
     1059        1:?        2:2       0.883 
     1060        1:?        2:2       0.883 
     1061        1:?        2:2       0.883 
     1062        1:?        2:2       0.883 
     1063        1:?        1:1       0.951 
     1064        1:?        2:2       0.883 
     1065        1:?        1:1       0.9 
     1066        1:?        1:1       0.808 
     1067        1:?        1:1       0.951 
     1068        1:?        2:2       0.883 
     1069        1:?        1:1       0.808 
     1070        1:?        2:2       0.883 
     1071        1:?        1:1       0.9 
     1072        1:?        2:2       0.883 
     1073        1:?        1:1       0.808 
     1074        1:?        2:2       0.883 
     1075        1:?        2:2       0.883 
     1076        1:?        1:1       0.833 
     1077        1:?        2:2       0.883 
     1078        1:?        1:1       1 
     1079        1:?        1:1       1 
     1080        1:?        2:2       0.883 
     1081        1:?        1:1       0.939 
     1082        1:?        2:2       0.833 
     1083        1:?        1:1       0.939 
     1084        1:?        1:1       0.951 
     1085        1:?        2:2       0.883 
     1086        1:?        1:1       0.951 
     1087        1:?        2:2       0.883 
     1088        1:?        2:2       0.883 
     1089        1:?        1:1       0.951 
     1090        1:?        1:1       0.962 
     1091        1:?        2:2       0.883 
     1092        1:?        2:2       0.883 
     1093        1:?        2:2       0.883 
     1094        1:?        2:2       0.883 
     1095        1:?        1:1       0.9 
     1096        1:?        2:2       0.883 
     1097        1:?        2:2       0.883 
     1098        1:?        1:1       0.864 
     1099        1:?        2:2       0.883 
     1100        1:?        2:2       0.883 
     1101        1:?        2:2       0.883 
     1102        1:?        2:2       0.883 
     1103        1:?        2:2       0.773 
     1104        1:?        1:1       0.808 
     1105        1:?        2:2       0.883 
     1106        1:?        1:1       0.909 
     1107        1:?        1:1       0.951 
     1108        1:?        1:1       0.9 
     1109        1:?        2:2       0.75 
     1110        1:?        2:2       0.883 
     1111        1:?        1:1       1 
     1112        1:?        2:2       0.883 
     1113        1:?        1:1       0.951 
     1114        1:?        1:1       0.951 
     1115        1:?        1:1       0.808 
     1116        1:?        1:1       1 
     1117        1:?        2:2       0.883 
     1118        1:?        1:1       0.951 
     1119        1:?        1:1       0.9 
     1120        1:?        1:1       1 
     1121        1:?        1:1       0.864 
     1122        1:?        1:1       1 
     1123        1:?        1:1       1 
     1124        1:?        2:2       0.883 
     1125        1:?        2:2       0.883 
     1126        1:?        2:2       0.883 
     1127        1:?        2:2       0.883 
     1128        1:?        2:2       0.883 
     1129        1:?        2:2       0.883 
     1130        1:?        2:2       0.883 
     1131        1:?        2:2       0.75 
     1132        1:?        2:2       0.883 
     1133        1:?        1:1       1 
     1134        1:?        2:2       0.883 
     1135        1:?        1:1       1 
     1136        1:?        2:2       0.883 
     1137        1:?        1:1       0.951 
     1138        1:?        2:2       0.667 
     1139        1:?        1:1       0.9 
     1140        1:?        2:2       0.883 
     1141        1:?        1:1       0.951 
     1142        1:?        1:1       1 
     1143        1:?        1:1       0.951 
     1144        1:?        1:1       1 
     1145        1:?        1:1       0.962 
     1146        1:?        1:1       0.951 
     1147        1:?        1:1       0.951 
     1148        1:?        1:1       0.808 
     1149        1:?        1:1       0.962 
     1150        1:?        1:1       0.951 
     1151        1:?        2:2       0.883 
     1152        1:?        2:2       0.883 
     1153        1:?        1:1       0.951 
     1154        1:?        1:1       0.939 
     1155        1:?        2:2       0.883 
     1156        1:?        2:2       0.883 
     1157        1:?        2:2       0.773 
     1158        1:?        1:1       0.909 
     1159        1:?        2:2       0.883 
     1160        1:?        1:1       0.9 
     1161        1:?        2:2       0.883 
     1162        1:?        1:1       0.909 
     1163        1:?        2:2       0.883 
     1164        1:?        1:1       0.951 
     1165        1:?        2:2       0.883 
     1166        1:?        2:2       0.883 
     1167        1:?        1:1       0.951 
     1168        1:?        2:2       0.75 
     1169        1:?        2:2       0.75 
     1170        1:?        2:2       0.773 
     1171        1:?        2:2       0.883 
     1172        1:?        1:1       0.9 
     1173        1:?        1:1       0.939 
     1174        1:?        2:2       1 
     1175        1:?        2:2       0.883 
     1176        1:?        1:1       0.951 
     1177        1:?        2:2       0.75 
     1178        1:?        1:1       1 
     1179        1:?        2:2       0.773 
     1180        1:?        2:2       0.883 
     1181        1:?        1:1       0.808 
     1182        1:?        2:2       1 
     1183        1:?        2:2       0.883 
     1184        1:?        2:2       0.883 
     1185        1:?        1:1       0.951 
     1186        1:?        2:2       0.883 
     1187        1:?        1:1       0.962 
     1188        1:?        2:2       0.883 
     1189        1:?        1:1       1 
     1190        1:?        2:2       0.75 
     1191        1:?        2:2       0.883 
     1192        1:?        1:1       0.864 
     1193        1:?        1:1       1 
     1194        1:?        1:1       0.864 
     1195        1:?        1:1       0.833 
     1196        1:?        2:2       0.883 
     1197        1:?        1:1       1 
     1198        1:?        1:1       0.951 
     1199        1:?        1:1       1 
     1200        1:?        2:2       0.883 
     1201        1:?        2:2       0.883 
     1202        1:?        2:2       0.883 
     1203        1:?        2:2       0.883 
     1204        1:?        2:2       0.883 
     1205        1:?        1:1       0.951 
     1206        1:?        2:2       0.75 
     1207        1:?        1:1       0.939 
     1208        1:?        2:2       0.883 
     1209        1:?        1:1       1 
     1210        1:?        1:1       1 
     1211        1:?        1:1       0.962 
     1212        1:?        2:2       0.773 
     1213        1:?        1:1       0.909 
     1214        1:?        2:2       0.883 
     1215        1:?        2:2       0.883 
     1216        1:?        2:2       0.883 
     1217        1:?        1:1       0.808 
     1218        1:?        1:1       0.939 
     1219        1:?        2:2       0.883 
     1220        1:?        2:2       0.883 
     1221        1:?        2:2       0.883 
     1222        1:?        1:1       0.864 
     1223        1:?        1:1       1 
     1224        1:?        1:1       0.9 
     1225        1:?        1:1       1 
     1226        1:?        1:1       0.808 
     1227        1:?        1:1       0.951 
     1228        1:?        1:1       0.9 
     1229        1:?        2:2       0.883 
     1230        1:?        1:1       0.909 
     1231        1:?        1:1       0.951 
     1232        1:?        1:1       0.951 
     1233        1:?        2:2       0.883 
     1234        1:?        1:1       0.833 
     1235        1:?        2:2       0.883 
     1236        1:?        1:1       1 
     1237        1:?        2:2       0.883 
     1238        1:?        1:1       1 
     1239        1:?        2:2       0.883 
     1240        1:?        1:1       0.951 
     1241        1:?        1:1       0.939 
     1242        1:?        2:2       0.883 
     1243        1:?        2:2       0.883 
     1244        1:?        2:2       0.75 
     1245        1:?        2:2       0.883 
     1246        1:?        1:1       1 
     1247        1:?        1:1       0.951 
     1248        1:?        1:1       0.951 
     1249        1:?        2:2       0.883 
     1250        1:?        1:1       0.951 
     1251        1:?        1:1       0.951 
     1252        1:?        1:1       0.864 
     1253        1:?        2:2       0.883 
     1254        1:?        1:1       0.9 
     1255        1:?        1:1       0.951 
     1256        1:?        1:1       0.939 
     1257        1:?        1:1       0.939 
     1258        1:?        2:2       0.883 
     1259        1:?        2:2       0.883 
     1260        1:?        2:2       0.883 
     1261        1:?        2:2       0.883 
     1262        1:?        1:1       0.951 
     1263        1:?        2:2       0.883 
     1264        1:?        2:2       0.889 
     1265        1:?        1:1       0.808 
     1266        1:?        2:2       0.883 
     1267        1:?        2:2       0.883 
     1268        1:?        2:2       0.883 
     1269        1:?        2:2       0.75 
     1270        1:?        1:1       1 
     1271        1:?        2:2       0.883 
     1272        1:?        2:2       0.75 
     1273        1:?        2:2       0.883 
     1274        1:?        2:2       0.75 
     1275        1:?        1:1       0.951 
     1276        1:?        2:2       0.883 
     1277        1:?        2:2       0.883 
     1278        1:?        2:2       0.883 
     1279        1:?        1:1       0.951 
     1280        1:?        2:2       0.883 
     1281        1:?        1:1       1 
     1282        1:?        1:1       0.951 
     1283        1:?        1:1       0.833 
     1284        1:?        1:1       0.951 
     1285        1:?        2:2       0.883 
     1286        1:?        1:1       0.808 
     1287        1:?        1:1       1 
     1288        1:?        2:2       0.883 
     1289        1:?        1:1       0.962 
     1290        1:?        2:2       0.883 
     1291        1:?        2:2       0.883 
     1292        1:?        1:1       0.951 
     1293        1:?        2:2       0.883 
     1294        1:?        2:2       0.883 
     1295        1:?        2:2       0.883 
     1296        1:?        1:1       0.951 
     1297        1:?        2:2       0.883 
     1298        1:?        2:2       0.883 
     1299        1:?        2:2       0.883 
     1300        1:?        2:2       0.883 
     1301        1:?        2:2       0.883 
     1302        1:?        1:1       0.951 
     1303        1:?        2:2       1 
     1304        1:?        2:2       0.883 
     1305        1:?        2:2       0.883 
     1306        1:?        1:1       0.951 
     1307        1:?        1:1       0.909 
     1308        1:?        1:1       0.951 
     1309        1:?        2:2       0.883 
     1310        1:?        1:1       0.808 
     1311        1:?        1:1       1 
     1312        1:?        1:1       0.714 
     1313        1:?        2:2       1 
     1314        1:?        2:2       0.883 
     1315        1:?        2:2       0.883 
     1316        1:?        1:1       0.864 
     1317        1:?        1:1       1 
     1318        1:?        2:2       0.883 
     1319        1:?        2:2       0.883 
     1320        1:?        1:1       0.939 
     1321        1:?        2:2       0.883 
     1322        1:?        1:1       0.962 
     1323        1:?        1:1       1 
     1324        1:?        2:2       0.883 
     1325        1:?        2:2       0.883 
     1326        1:?        2:2       0.883 
     1327        1:?        2:2       0.883 
     1328        1:?        1:1       0.833 
     1329        1:?        1:1       0.951 
     1330        1:?        2:2       0.883 
     1331        1:?        1:1       0.962 
     1332        1:?        1:1       0.909 
     1333        1:?        2:2       0.883 
     1334        1:?        2:2       0.883 
     1335        1:?        1:1       1 
     1336        1:?        1:1       0.939 
     1337        1:?        2:2       0.883 
     1338        1:?        2:2       0.883 
     1339        1:?        2:2       0.883 
     1340        1:?        1:1       0.939 
     1341        1:?        1:1       0.951 
     1342        1:?        2:2       0.883 
     1343        1:?        2:2       0.883 
     1344        1:?        1:1       0.864 
     1345        1:?        2:2       0.75 
     1346        1:?        2:2       0.883 
     1347        1:?        2:2       0.883 
     1348        1:?        1:1       0.9 
     1349        1:?        2:2       0.773 
     1350        1:?        1:1       0.909 
     1351        1:?        2:2       0.883 
     1352        1:?        2:2       0.883 
     1353        1:?        2:2       0.883 
     1354        1:?        2:2       0.883 
     1355        1:?        2:2       1 
     1356        1:?        1:1       0.939 
     1357        1:?        2:2       0.883 
     1358        1:?        2:2       0.883 
     1359        1:?        2:2       1 
     1360        1:?        1:1       0.951 
     1361        1:?        1:1       0.939 
     1362        1:?        2:2       0.883 
     1363        1:?        2:2       0.883 
     1364        1:?        1:1       0.9 
     1365        1:?        1:1       0.939 
     1366        1:?        2:2       0.883 
     1367        1:?        2:2       0.883 
     1368        1:?        2:2       0.883 
     1369        1:?        1:1       0.909 
     1370        1:?        2:2       0.883 
     1371        1:?        1:1       0.9 
     1372        1:?        1:1       1 
     1373        1:?        1:1       0.962 
     1374        1:?        1:1       0.864 
     1375        1:?        2:2       0.883 
     1376        1:?        2:2       0.883 
     1377        1:?        1:1       0.962 
     1378        1:?        1:1       0.962 
     1379        1:?        2:2       0.889 
     1380        1:?        1:1       0.909 
     1381        1:?        2:2       0.883 
     1382        1:?        2:2       0.889 
     1383        1:?        1:1       1 
     1384        1:?        1:1       0.962 
     1385        1:?        2:2       0.883 
     1386        1:?        2:2       0.883 
     1387        1:?        1:1       1 
     1388        1:?        1:1       0.962 
     1389        1:?        2:2       1 
     1390        1:?        2:2       0.883 
     1391        1:?        2:2       0.883 
     1392        1:?        1:1       0.951 
     1393        1:?        1:1       0.951 
     1394        1:?        1:1       1 
     1395        1:?        1:1       0.939 
     1396        1:?        1:1       1 
     1397        1:?        1:1       0.962 
     1398        1:?        1:1       0.951 
     1399        1:?        2:2       0.75 
     1400        1:?        1:1       0.951 
     1401        1:?        2:2       0.75 
     1402        1:?        2:2       0.883 
     1403        1:?        1:1       0.939 
     1404        1:?        2:2       0.883 
     1405        1:?        2:2       0.75 
     1406        1:?        1:1       0.951 
     1407        1:?        1:1       0.951 
     1408        1:?        1:1       1 
     1409        1:?        2:2       0.883 
     1410        1:?        1:1       0.864 
     1411        1:?        2:2       0.883 
     1412        1:?        2:2       0.883 
     1413        1:?        1:1       1 
     1414        1:?        2:2       0.883 
     1415        1:?        1:1       0.909 
     1416        1:?        1:1       0.909 
     1417        1:?        1:1       0.951 
     1418        1:?        1:1       0.939 
     1419        1:?        1:1       0.9 
     1420        1:?        1:1       1 
     1421        1:?        2:2       0.883 
     1422        1:?        2:2       0.75 
     1423        1:?        2:2       0.75 
     1424        1:?        2:2       0.883 
     1425        1:?        2:2       0.883 
     1426        1:?        1:1       1 
     1427        1:?        1:1       0.962 
     1428        1:?        2:2       0.883 
     1429        1:?        2:2       0.883 
     1430        1:?        1:1       0.951 
     1431        1:?        1:1       0.909 
     1432        1:?        2:2       0.833 
     1433        1:?        2:2       0.883 
     1434        1:?        2:2       0.883 
     1435        1:?        2:2       0.883 
     1436        1:?        1:1       0.864 
     1437        1:?        2:2       0.883 
     1438        1:?        1:1       0.962 
     1439        1:?        2:2       0.883 
     1440        1:?        1:1       0.864 
     1441        1:?        1:1       0.833 
     1442        1:?        2:2       0.833 
     1443        1:?        2:2       0.883 
     1444        1:?        2:2       0.75 
     1445        1:?        2:2       0.883 
     1446        1:?        1:1       0.714 
     1447        1:?        2:2       0.883 
     1448        1:?        1:1       0.808 
     1449        1:?        2:2       0.883 
     1450        1:?        2:2       0.883 
     1451        1:?        2:2       0.883 
     1452        1:?        2:2       0.883 
     1453        1:?        2:2       0.883 
     1454        1:?        2:2       0.883 
     1455        1:?        2:2       1 
     1456        1:?        2:2       0.883 
     1457        1:?        2:2       0.883 
     1458        1:?        2:2       0.883 
     1459        1:?        2:2       0.75 
     1460        1:?        1:1       0.9 
     1461        1:?        2:2       0.883 
     1462        1:?        2:2       0.883 
     1463        1:?        2:2       0.883 
     1464        1:?        2:2       0.883 
     1465        1:?        1:1       0.833 
     1466        1:?        2:2       0.883 
     1467        1:?        2:2       0.883 
     1468        1:?        2:2       0.883 
     1469        1:?        2:2       0.883 
     1470        1:?        1:1       0.951 
     1471        1:?        1:1       0.951 
     1472        1:?        2:2       0.883 
     1473        1:?        2:2       0.883 
     1474        1:?        1:1       0.962 
     1475        1:?        2:2       0.883 
     1476        1:?        2:2       0.883 
     1477        1:?        2:2       0.883 
     1478        1:?        1:1       1 
     1479        1:?        2:2       0.883 
     1480        1:?        2:2       0.883 
     1481        1:?        1:1       0.939 
     1482        1:?        1:1       0.951 
     1483        1:?        1:1       0.808 
     1484        1:?        2:2       0.883 
     1485        1:?        1:1       1 
     1486        1:?        1:1       0.939 
     1487        1:?        1:1       0.939 
     1488        1:?        2:2       0.883 
     1489        1:?        2:2       0.883 
     1490        1:?        1:1       0.808 
     1491        1:?        2:2       0.883 
     1492        1:?        1:1       1 
     1493        1:?        1:1       1 
     1494        1:?        2:2       1 
     1495        1:?        2:2       0.883 
     1496        1:?        1:1       0.864 
     1497        1:?        2:2       0.883 
     1498        1:?        2:2       0.883 
     1499        1:?        2:2       0.883 
     1500        1:?        1:1       0.833 
     1501        1:?        2:2       0.883 
     1502        1:?        1:1       0.951 
     1503        1:?        1:1       0.951 
     1504        1:?        1:1       0.962 
     1505        1:?        2:2       0.883 
     1506        1:?        2:2       0.883 
     1507        1:?        2:2       0.889 
     1508        1:?        1:1       0.909 
     1509        1:?        1:1       0.939 
     1510        1:?        1:1       0.714 
     1511        1:?        2:2       0.883 
     1512        1:?        1:1       0.909 
     1513        1:?        1:1       0.951 
     1514        1:?        1:1       0.9 
     1515        1:?        2:2       0.883 
     1516        1:?        1:1       0.864 
     1517        1:?        2:2       0.883 
     1518        1:?        1:1       0.75 
     1519        1:?        2:2       0.75 
     1520        1:?        1:1       0.75 
     1521        1:?        2:2       0.883 
     1522        1:?        2:2       0.75 
     1523        1:?        2:2       0.883 
     1524        1:?        1:1       0.951 
     1525        1:?        1:1       0.939 
     1526        1:?        2:2       0.883 
     1527        1:?        1:1       0.939 
     1528        1:?        2:2       0.883 
     1529        1:?        2:2       0.883 
     1530        1:?        1:1       0.939 
     1531        1:?        1:1       0.951 
     1532        1:?        2:2       0.883 
     1533        1:?        2:2       0.883 
     1534        1:?        1:1       1 
     1535        1:?        2:2       0.883 
     1536        1:?        2:2       1 
     1537        1:?        2:2       0.889 
     1538        1:?        2:2       0.883 
     1539        1:?        1:1       0.808 
     1540        1:?        1:1       0.9 
     1541        1:?        1:1       0.951 
     1542        1:?        2:2       0.883 
     1543        1:?        1:1       0.951 
     1544        1:?        2:2       0.883 
     1545        1:?        2:2       0.883 
     1546        1:?        2:2       0.883 
     1547        1:?        2:2       0.883 
     1548        1:?        1:1       0.864 
     1549        1:?        2:2       0.883 
     1550        1:?        2:2       0.883 
     1551        1:?        1:1       1 
     1552        1:?        1:1       0.951 
     1553        1:?        1:1       0.951 
     1554        1:?        1:1       1 
     1555        1:?        2:2       0.883 
     1556        1:?        2:2       0.883 
     1557        1:?        2:2       0.883 
     1558        1:?        1:1       0.951 
     1559        1:?        2:2       0.883 
     1560        1:?        1:1       0.962 
     1561        1:?        2:2       0.883 
     1562        1:?        1:1       0.833 
     1563        1:?        1:1       0.951 
     1564        1:?        2:2       0.883 
     1565        1:?        2:2       0.883 
     1566        1:?        1:1       0.864 
     1567        1:?        2:2       0.883 
     1568        1:?        1:1       1 
     1569        1:?        2:2       0.883 
     1570        1:?        1:1       1 
     1571        1:?        2:2       0.773 
     1572        1:?        2:2       0.883 
     1573        1:?        2:2       0.883 
     1574        1:?        2:2       0.883 
     1575        1:?        2:2       0.883 
     1576        1:?        1:1       0.909 
     1577        1:?        2:2       0.883 
     1578        1:?        2:2       0.883 
     1579        1:?        2:2       0.883 
     1580        1:?        1:1       0.951 
     1581        1:?        2:2       0.883 
     1582        1:?        1:1       0.808 
     1583        1:?        1:1       0.909 
     1584        1:?        1:1       1 
     1585        1:?        2:2       0.883 
     1586        1:?        2:2       0.883 
     1587        1:?        2:2       0.883 
     1588        1:?        2:2       0.883 
     1589        1:?        1:1       0.951 
     1590        1:?        2:2       0.883 
     1591        1:?        2:2       0.883 
     1592        1:?        1:1       0.951 
     1593        1:?        2:2       0.883 
     1594        1:?        2:2       0.883 
     1595        1:?        2:2       0.883 
     1596        1:?        2:2       0.667 
     1597        1:?        1:1       1 
     1598        1:?        1:1       0.864 
     1599        1:?        1:1       1 
     1600        1:?        2:2       0.883 
     1601        1:?        1:1       0.951 
     1602        1:?        2:2       0.883 
     1603        1:?        1:1       0.9 
     1604        1:?        2:2       0.883 
     1605        1:?        2:2       0.883 
     1606        1:?        1:1       0.833 
     1607        1:?        1:1       0.951 
     1608        1:?        2:2       0.883 
     1609        1:?        2:2       0.883 
     1610        1:?        2:2       0.883 
     1611        1:?        2:2       0.883 
     1612        1:?        2:2       0.883 
     1613        1:?        1:1       0.951 
     1614        1:?        2:2       0.883 
     1615        1:?        2:2       0.883 
     1616        1:?        1:1       0.864 
     1617        1:?        1:1       0.951 
     1618        1:?        2:2       0.883 
     1619        1:?        2:2       0.883 
     1620        1:?        2:2       0.883 
     1621        1:?        2:2       0.883 
     1622        1:?        1:1       0.951 
     1623        1:?        2:2       0.883 
     1624        1:?        2:2       0.883 
     1625        1:?        1:1       0.951 
     1626        1:?        2:2       0.883 
     1627        1:?        2:2       0.75 
     1628        1:?        1:1       0.939 
     1629        1:?        2:2       1 
     1630        1:?        2:2       0.883 
     1631        1:?        1:1       0.864 
     1632        1:?        2:2       0.883 
     1633        1:?        1:1       0.714 
     1634        1:?        2:2       0.883 
     1635        1:?        1:1       0.951 
     1636        1:?        2:2       0.883 
     1637        1:?        2:2       0.833 
     1638        1:?        2:2       0.883 
     1639        1:?        1:1       1 
     1640        1:?        2:2       0.883 
     1641        1:?        2:2       1 
     1642        1:?        2:2       0.883 
     1643        1:?        1:1       0.864 
     1644        1:?        2:2       0.833 
     1645        1:?        1:1       0.833 
     1646        1:?        2:2       0.883 
     1647        1:?        2:2       0.667 
     1648        1:?        2:2       0.883 
     1649        1:?        1:1       0.909 
     1650        1:?        2:2       0.75 
     1651        1:?        2:2       0.883 
     1652        1:?        2:2       0.889 
     1653        1:?        2:2       0.883 
     1654        1:?        2:2       0.883 
     1655        1:?        1:1       1 
     1656        1:?        1:1       1 
     1657        1:?        2:2       0.883 
     1658        1:?        2:2       1 
     1659        1:?        1:1       0.909 
     1660        1:?        2:2       0.883 
     1661        1:?        2:2       0.883 
     1662        1:?        1:1       1 
     1663        1:?        2:2       0.883 
     1664        1:?        1:1       0.939 
     1665        1:?        1:1       0.808 
     1666        1:?        2:2       0.883 
     1667        1:?        2:2       0.883 
     1668        1:?        2:2       0.883 
     1669        1:?        1:1       0.962 
     1670        1:?        2:2       0.883 
     1671        1:?        2:2       0.889 
     1672        1:?        2:2       0.883 
     1673        1:?        2:2       0.883 
     1674        1:?        2:2       0.75 
     1675        1:?        2:2       0.883 
     1676        1:?        2:2       0.833 
     1677        1:?        2:2       0.833 
     1678        1:?        2:2       0.883 
     1679        1:?        1:1       0.951 
     1680        1:?        2:2       0.883 
     1681        1:?        1:1       0.951 
     1682        1:?        1:1       0.714 
     1683        1:?        2:2       0.883 
     1684        1:?        2:2       0.883 
     1685        1:?        1:1       0.808 
     1686        1:?        2:2       0.883 
     1687        1:?        2:2       0.883 
     1688        1:?        2:2       0.883 
     1689        1:?        1:1       1 
     1690        1:?        2:2       0.883 
     1691        1:?        2:2       0.883 
     1692        1:?        1:1       0.951 
     1693        1:?        2:2       0.883 
     1694        1:?        2:2       0.883 
     1695        1:?        1:1       0.951 
     1696        1:?        1:1       0.939 
     1697        1:?        1:1       0.962 
     1698        1:?        1:1       0.951 
     1699        1:?        2:2       0.883 
     1700        1:?        2:2       0.883 
     1701        1:?        2:2       0.75 
     1702        1:?        1:1       0.951 
     1703        1:?        1:1       0.951 
     1704        1:?        2:2       1 
     1705        1:?        1:1       0.939 
     1706        1:?        1:1       0.951 
     1707        1:?        1:1       0.962 
     1708        1:?        1:1       0.808 
     1709        1:?        2:2       0.883 
     1710        1:?        1:1       0.939 
     1711        1:?        2:2       0.883 
     1712        1:?        2:2       0.883 
     1713        1:?        1:1       0.939 
     1714        1:?        2:2       0.883 
     1715        1:?        2:2       0.883 
     1716        1:?        1:1       0.951 
     1717        1:?        1:1       1 
     1718        1:?        1:1       0.951 
     1719        1:?        2:2       0.883 
     1720        1:?        1:1       0.951 
     1721        1:?        1:1       0.951 
     1722        1:?        1:1       0.939 
     1723        1:?        2:2       1 
     1724        1:?        2:2       0.883 
     1725        1:?        1:1       1 
     1726        1:?        1:1       0.951 
     1727        1:?        2:2       0.883 
     1728        1:?        2:2       0.883 
     1729        1:?        2:2       0.75 
     1730        1:?        1:1       0.939 
     1731        1:?        2:2       0.883 
     1732        1:?        1:1       0.939 
     1733        1:?        2:2       0.75 
     1734        1:?        1:1       0.864 
     1735        1:?        2:2       0.883 
     1736        1:?        2:2       0.883 
     1737        1:?        1:1       1 
     1738        1:?        1:1       1 
     1739        1:?        1:1       1 
     1740        1:?        2:2       0.883 
     1741        1:?        2:2       0.883 
     1742        1:?        1:1       0.808 
     1743        1:?        1:1       0.951 
     1744        1:?        2:2       0.883 
     1745        1:?        2:2       0.883 
     1746        1:?        1:1       1 
     1747        1:?        2:2       0.883 
     1748        1:?        1:1       0.939 
     1749        1:?        1:1       1 
     1750        1:?        1:1       1 
     1751        1:?        1:1       1 
     1752        1:?        2:2       0.883 
     1753        1:?        2:2       0.883 
     1754        1:?        2:2       0.883 
     1755        1:?        2:2       0.883 
     1756        1:?        1:1       1 
     1757        1:?        1:1       0.951 
     1758        1:?        2:2       0.883 
     1759        1:?        2:2       0.883 
     1760        1:?        2:2       0.883 
     1761        1:?        1:1       0.951 
     1762        1:?        1:1       0.951 
     1763        1:?        1:1       0.9 
     1764        1:?        2:2       0.883 
     1765        1:?        2:2       0.883 
     1766        1:?        1:1       0.909 
     1767        1:?        2:2       0.883 
     1768        1:?        2:2       0.883 
     1769        1:?        1:1       0.951 
     1770        1:?        1:1       1 
     1771        1:?        1:1       0.9 
     1772        1:?        1:1       1 
     1773        1:?        1:1       0.808 
     1774        1:?        1:1       1 
     1775        1:?        2:2       0.883 
     1776        1:?        1:1       0.939 
     1777        1:?        2:2       0.883 
     1778        1:?        1:1       1 
     1779        1:?        2:2       0.883 
     1780        1:?        2:2       0.889 
     1781        1:?        1:1       0.951 
     1782        1:?        2:2       0.883 
     1783        1:?        2:2       0.883 
     1784        1:?        2:2       0.883 
     1785        1:?        2:2       0.883 
     1786        1:?        1:1       1 
     1787        1:?        2:2       0.883 
     1788        1:?        2:2       0.75 
     1789        1:?        2:2       0.883 
     1790        1:?        2:2       0.883 
     1791        1:?        1:1       0.808 
     1792        1:?        1:1       0.939 
     1793        1:?        1:1       0.833 
     1794        1:?        2:2       0.883 
     1795        1:?        1:1       1 
     1796        1:?        2:2       0.883 
     1797        1:?        2:2       0.883 
     1798        1:?        2:2       0.883 
     1799        1:?        2:2       0.883 
     1800        1:?        2:2       0.883 
     1801        1:?        2:2       0.883 
     1802        1:?        1:1       1 
     1803        1:?        2:2       0.883 
     1804        1:?        2:2       0.883 
     1805        1:?        2:2       0.883 
     1806        1:?        2:2       0.883 
     1807        1:?        1:1       0.9 
     1808        1:?        1:1       0.962 
     1809        1:?        1:1       0.939 
     1810        1:?        2:2       0.883 
     1811        1:?        1:1       0.951 
     1812        1:?        1:1       0.909 
     1813        1:?        1:1       1 
     1814        1:?        2:2       0.883 
     1815        1:?        2:2       0.883 
     1816        1:?        1:1       0.939 
     1817        1:?        2:2       0.75 
     1818        1:?        1:1       1 
     1819        1:?        2:2       0.883 
     1820        1:?        2:2       0.75 
     1821        1:?        2:2       0.883 
     1822        1:?        2:2       0.883 
     1823        1:?        2:2       0.883 
     1824        1:?        1:1       1 
     1825        1:?        2:2       0.883 
     1826        1:?        2:2       0.883 
     1827        1:?        2:2       0.883 
     1828        1:?        1:1       0.9 
     1829        1:?        1:1       0.909 
     1830        1:?        2:2       0.75 
     1831        1:?        1:1       0.951 
     1832        1:?        2:2       0.883 
     1833        1:?        2:2       0.75 
     1834        1:?        2:2       0.883 
     1835        1:?        2:2       0.75 
     1836        1:?        2:2       0.889 
     1837        1:?        2:2       0.883 
     1838        1:?        1:1       0.909 
     1839        1:?        1:1       0.833 
     1840        1:?        1:1       0.833 
     1841        1:?        1:1       0.714 
     1842        1:?        1:1       0.864 
     1843        1:?        2:2       0.883 
     1844        1:?        2:2       0.883 
     1845        1:?        2:2       0.883 
     1846        1:?        1:1       0.951 
     1847        1:?        1:1       0.951 
     1848        1:?        1:1       0.714 
     1849        1:?        2:2       0.883 
     1850        1:?        1:1       0.808 
     1851        1:?        2:2       0.883 
     1852        1:?        1:1       0.951 
     1853        1:?        2:2       0.883 
     1854        1:?        2:2       0.883 
     1855        1:?        1:1       0.808 
     1856        1:?        1:1       1 
     1857        1:?        1:1       0.909 
     1858        1:?        1:1       0.951 
     1859        1:?        1:1       0.962 
     1860        1:?        2:2       0.773 
     1861        1:?        2:2       0.883 
     1862        1:?        1:1       0.951 
     1863        1:?        2:2       0.883 
     1864        1:?        1:1       0.909 
     1865        1:?        2:2       0.883 
     1866        1:?        2:2       0.75 
     1867        1:?        2:2       0.883 
     1868        1:?        2:2       0.883 
     1869        1:?        1:1       0.808 
     1870        1:?        1:1       0.939 
     1871        1:?        1:1       0.962 
     1872        1:?        1:1       0.939 
     1873        1:?        2:2       0.883 
     1874        1:?        2:2       0.883 
     1875        1:?        2:2       0.883 
     1876        1:?        1:1       1 
     1877        1:?        1:1       0.9 
     1878        1:?        1:1       1 
     1879        1:?        2:2       0.883 
     1880        1:?        1:1       1 
     1881        1:?        2:2       0.75 
     1882        1:?        1:1       1 
     1883        1:?        1:1       0.939 
     1884        1:?        2:2       0.883 
     1885        1:?        2:2       0.883 
     1886        1:?        2:2       0.883 
     1887        1:?        2:2       0.883 
     1888        1:?        1:1       0.833 
     1889        1:?        2:2       0.883 
     1890        1:?        1:1       0.951 
     1891        1:?        2:2       0.883 
     1892        1:?        2:2       0.883 
     1893        1:?        2:2       0.883 
     1894        1:?        1:1       0.951 
     1895        1:?        2:2       0.883 
     1896        1:?        1:1       0.951 
     1897        1:?        2:2       0.883 
     1898        1:?        2:2       0.883 
     1899        1:?        2:2       0.883 
     1900        1:?        2:2       0.883 
     1901        1:?        2:2       0.883 
     1902        1:?        2:2       0.75 
     1903        1:?        2:2       0.889 
     1904        1:?        2:2       0.883 
     1905        1:?        2:2       0.883 
     1906        1:?        2:2       0.883 
     1907        1:?        1:1       1 
     1908        1:?        1:1       0.864 
     1909        1:?        2:2       0.883 
     1910        1:?        1:1       0.833 
     1911        1:?        1:1       0.864 
     1912        1:?        2:2       0.883 
     1913        1:?        2:2       1 
     1914        1:?        2:2       0.883 
     1915        1:?        2:2       0.883 
     1916        1:?        2:2       0.883 
     1917        1:?        2:2       1 
     1918        1:?        2:2       0.883 
     1919        1:?        2:2       0.883 
     1920        1:?        1:1       0.808 
     1921        1:?        1:1       0.951 
     1922        1:?        1:1       0.9 
     1923        1:?        2:2       0.75 
     1924        1:?        1:1       0.951 
     1925        1:?        2:2       0.883 
     1926        1:?        1:1       0.909 
     1927        1:?        2:2       0.883 
     1928        1:?        2:2       0.883 
     1929        1:?        2:2       0.75 
     1930        1:?        1:1       1 
     1931        1:?        1:1       0.909 
     1932        1:?        2:2       0.883 
     1933        1:?        2:2       0.773 
     1934        1:?        2:2       0.833 
     1935        1:?        1:1       0.939 
     1936        1:?        1:1       0.962 
     1937        1:?        2:2       0.883 
     1938        1:?        2:2       0.883 
     1939        1:?        1:1       0.939 
     1940        1:?        2:2       0.883 
     1941        1:?        2:2       0.883 
     1942        1:?        2:2       0.883 
     1943        1:?        2:2       0.883 
     1944        1:?        1:1       0.939 
     1945        1:?        1:1       0.939 
     1946        1:?        2:2       0.883 
     1947        1:?        2:2       0.75 
     1948        1:?        2:2       0.75 
     1949        1:?        1:1       1 
     1950        1:?        2:2       0.883 
     1951        1:?        2:2       0.883 
     1952        1:?        1:1       0.864 
     1953        1:?        2:2       0.883 
     1954        1:?        1:1       0.951 
     1955        1:?        1:1       0.939 
     1956        1:?        2:2       0.883 
     1957        1:?        2:2       0.833 
     1958        1:?        1:1       0.864 
     1959        1:?        2:2       0.883 
     1960        1:?        2:2       0.883 
     1961        1:?        2:2       0.75 
     1962        1:?        1:1       0.951 
     1963        1:?        2:2       0.883 
     1964        1:?        2:2       0.883 
     1965        1:?        2:2       0.883 
     1966        1:?        2:2       0.883 
     1967        1:?        1:1       0.939 
     1968        1:?        1:1       1 
     1969        1:?        2:2       0.883 
     1970        1:?        2:2       0.883 
     1971        1:?        2:2       0.883 
     1972        1:?        1:1       0.951 
     1973        1:?        2:2       0.883 
     1974        1:?        2:2       0.883 
     1975        1:?        1:1       0.9 
     1976        1:?        1:1       0.951 
     1977        1:?        2:2       0.883 
     1978        1:?        2:2       1 
     1979        1:?        1:1       0.951 
     1980        1:?        1:1       0.833 
     1981        1:?        2:2       0.883 
     1982        1:?        1:1       0.808 
     1983        1:?        2:2       0.75 
     1984        1:?        2:2       0.75 
     1985        1:?        2:2       0.889 
     1986        1:?        1:1       0.939 
     1987        1:?        2:2       0.883 
     1988        1:?        1:1       1 
     1989        1:?        2:2       0.889 
     1990        1:?        1:1       0.909 
     1991        1:?        1:1       0.909 
     1992        1:?        2:2       0.833 
     1993        1:?        1:1       0.962 
     1994        1:?        2:2       0.75 
     1995        1:?        1:1       0.808 
     1996        1:?        1:1       0.833 
     1997        1:?        2:2       0.883 
     1998        1:?        1:1       0.9 
     1999        1:?        1:1       1 
     2000        1:?        2:2       0.883 
     2001        1:?        1:1       1 
     2002        1:?        2:2       0.883 
     2003        1:?        1:1       1 
     2004        1:?        2:2       0.883 
     2005        1:?        1:1       0.951 
     2006        1:?        2:2       0.883 
     2007        1:?        1:1       0.864 
     2008        1:?        2:2       0.883 
     2009        1:?        1:1       0.939 
     2010        1:?        1:1       1 
     2011        1:?        2:2       0.883 
     2012        1:?        2:2       0.883 
     2013        1:?        2:2       0.75 
     2014        1:?        2:2       0.75 
     2015        1:?        1:1       0.951 
     2016        1:?        2:2       0.883 
     2017        1:?        1:1       0.808 
     2018        1:?        1:1       0.9 
     2019        1:?        2:2       0.883 
     2020        1:?        2:2       0.883 
     2021        1:?        1:1       0.951 
     2022        1:?        2:2       0.883 
     2023        1:?        1:1       1 
     2024        1:?        2:2       0.773 
     2025        1:?        2:2       0.883 
     2026        1:?        1:1       0.909 
     2027        1:?        1:1       0.939 
     2028        1:?        2:2       0.883 
     2029        1:?        2:2       0.889 
     2030        1:?        1:1       0.833 
     2031        1:?        1:1       1 
     2032        1:?        2:2       0.883 
     2033        1:?        2:2       0.883 
     2034        1:?        2:2       0.75 
     2035        1:?        2:2       0.883 
     2036        1:?        2:2       0.883 
     2037        1:?        2:2       0.883 
     2038        1:?        1:1       0.951 
     2039        1:?        2:2       0.883 
     2040        1:?        2:2       0.883 
     2041        1:?        1:1       0.714 
     2042        1:?        2:2       0.883 
     2043        1:?        1:1       1 
     2044        1:?        2:2       0.883 
     2045        1:?        1:1       0.714 
     2046        1:?        1:1       1 
     2047        1:?        2:2       0.883 
     2048        1:?        1:1       0.951 
     2049        1:?        2:2       0.883 
     2050        1:?        2:2       0.883 
     2051        1:?        2:2       0.883 
     2052        1:?        2:2       0.883 
     2053        1:?        2:2       1 
     2054        1:?        1:1       0.951 
     2055        1:?        1:1       0.9 
     2056        1:?        1:1       1 
     2057        1:?        2:2       0.773 
     2058        1:?        1:1       0.9 
     2059        1:?        2:2       0.883 
     2060        1:?        2:2       0.883 
     2061        1:?        2:2       0.883 
     2062        1:?        2:2       0.883 
     2063        1:?        2:2       1 
     2064        1:?        1:1       0.808 
     2065        1:?        2:2       0.833 
     2066        1:?        2:2       0.883 
     2067        1:?        2:2       0.883 
     2068        1:?        2:2       0.883 
     2069        1:?        2:2       0.75 
     2070        1:?        2:2       0.883 
     2071        1:?        2:2       0.883 
     2072        1:?        2:2       0.883 
     2073        1:?        2:2       0.883 
     2074        1:?        2:2       0.883 
     2075        1:?        1:1       0.9 
     2076        1:?        1:1       1 
